10 100
</s> 0.004003 0.004419 -0.003830 -0.003278 0.001367 0.003021 0.000941 0.000211 -0.003604 0.002218 -0.004356 0.001250 -0.000751 -0.000957 -0.003316 -0.001882 0.002579 0.003025 0.002969 0.001597 0.001545 -0.003803 -0.004096 0.004970 0.003801 0.003090 -0.000604 0.004016 -0.000495 0.000735 -0.000149 -0.002983 0.001312 -0.001337 -0.003825 0.004754 0.004379 -0.001095 -0.000226 0.000509 -0.003638 -0.004007 0.004555 0.000063 -0.002582 -0.003042 -0.003076 0.001697 0.000201 0.001331 -0.004214 -0.003808 -0.000130 0.001144 0.002550 -0.003170 0.004080 0.000927 0.001120 -0.000608 0.002986 -0.002288 -0.002097 0.002158 -0.000753 0.001031 0.001805 -0.004089 -0.001983 0.002914 0.004232 0.003932 -0.003047 -0.002108 -0.000909 0.002001 -0.003788 0.002998 0.002788 -0.001599 -0.001552 -0.002238 0.004229 0.003912 -0.001180 0.004215 0.004820 0.001815 0.004983 -0.003111 -0.001532 -0.002107 -0.002907 0.002815 0.001579 0.000425 -0.002194 0.001524 0.003059 0.000194
， 0.980289 -1.395627 0.274447 -1.018398 0.847970 -2.521239 -1.336293 -0.725039 -0.315698 -0.121203 -0.343508 -0.106087 0.641604 1.469937 3.596640 -1.326771 -2.102463 -0.491119 -1.744920 -0.156374 1.979471 -1.168697 -0.242125 -3.555140 -1.378209 -0.155547 -1.968669 -0.280237 -0.180402 -0.175165 0.972674 -1.065995 -1.780604 0.405691 1.799332 0.918804 -0.125766 -0.910477 1.290577 -0.254945 -1.450142 -1.224965 -0.501707 -1.306479 0.375332 -0.730199 -0.961491 -1.206131 -0.269632 -1.057706 1.162363 0.064667 -2.483167 -0.124721 0.067478 2.412883 -1.284061 -0.218770 -0.365141 -0.169863 -1.416534 -0.259405 -1.058145 1.144628 0.352903 -1.176592 -1.549420 1.101898 -0.172272 0.149391 -0.686812 0.954745 -1.498806 -1.051515 -0.099144 0.311036 -0.043934 0.831652 3.214411 1.437218 2.011769 0.030217 -0.581935 0.694629 -0.856164 -0.192263 -0.124798 1.646393 0.542848 1.233350 -0.601727 1.119469 0.153454 0.575676 0.571165 1.572065 -0.083141 0.458643 0.381301 0.294948
的 0.083014 -0.931244 -0.173392 -1.516179 0.767700 -2.669801 -1.137679 -0.827783 -0.385338 -0.792992 0.657804 -0.047923 0.361713 1.815279 1.616671 -0.948446 -0.386337 -1.191732 -1.247687 -0.007482 0.557012 -2.446352 -0.788981 -3.936078 -1.507392 0.145352 -1.195191 -2.111730 -1.151520 -1.113063 0.484398 -0.712586 -1.309004 -0.350862 1.159676 2.107450 -0.377908 1.353806 1.494461 -0.496444 -0.035413 -1.487149 -1.771951 -2.218449 -0.683126 -1.310839 -1.215281 -1.327519 0.093603 -1.008481 -0.201459 2.261022 -3.009738 -1.867322 -0.458132 2.449251 -1.481057 0.112842 -0.123650 -1.005371 -1.306737 1.492569 0.151920 0.360484 -1.877375 1.505791 -2.051327 -0.023754 0.852793 0.087868 -0.441640 1.833809 1.099170 0.018365 -0.645717 -1.450585 -0.635103 1.717728 2.979472 2.472076 2.357728 0.682390 -1.764145 2.382206 0.599824 -1.438757 0.340202 0.007222 -1.347889 2.214784 0.270238 0.071216 0.693537 0.880689 1.602530 1.021682 0.608247 0.927389 1.040118 0.625527
。 2.205714 -1.721509 0.096868 -1.358725 1.371168 -3.426130 -0.861486 -0.846966 -0.430772 0.196385 0.124769 0.590205 0.969522 0.783357 3.105808 -1.968958 -1.780090 -0.282242 -1.309448 -0.876765 1.482030 -1.008758 -0.735869 -4.387448 -1.359371 0.417111 -1.101069 -0.411674 -0.743510 -0.163002 0.994187 -0.183739 -1.031501 0.858406 1.774236 0.391053 0.286646 -1.063350 1.460211 0.196361 -0.600134 -1.013750 -0.665983 -1.011875 0.269438 -0.695011 -1.398645 -1.347737 -0.242196 -1.657358 1.481217 -0.461706 -2.810512 -0.321933 -0.527410 3.437451 -1.698438 0.065107 -0.538958 1.011811 -1.826619 0.040637 -1.528199 0.807646 0.269252 -1.132327 -2.134017 0.629682 -0.421919 -0.400187 0.048520 1.139652 -0.979360 -0.601925 -0.347156 1.166078 -0.988843 1.502843 2.873492 1.498919 2.239577 1.101214 -0.587293 1.260299 -1.375773 -0.886757 -0.550110 2.278743 -0.333338 1.089891 -0.257901 0.150513 -0.156107 0.391915 0.720547 1.382291 -0.419832 0.141530 0.115719 0.216830
、 1.647420 3.138475 -1.660164 0.156450 3.185683 -2.759969 0.930985 0.123932 -1.190012 3.115396 0.542243 1.471965 1.036151 0.740247 -0.364775 2.231487 0.751185 0.490538 0.936083 -0.171126 0.133656 0.168439 1.372701 -2.841851 2.670710 -0.256327 -0.112380 -2.215226 0.710018 -1.664889 -1.441035 -0.863912 0.691944 -0.217502 2.379454 -1.506345 1.022562 -1.227528 0.525544 1.348101 -0.549580 -0.917642 0.013351 -2.253539 0.903401 -2.237445 1.405365 0.373814 -1.412999 -0.265153 2.381416 0.202083 -1.488930 3.283332 -0.525639 -1.147385 -0.622257 -0.927824 3.118336 -1.285686 -0.854905 0.190263 2.246644 -0.889683 -0.414600 0.398906 1.504892 0.723578 0.676886 0.223463 1.068351 0.750788 1.107324 -0.177855 0.608541 -0.082235 0.074025 -2.738132 3.399669 1.736382 2.544213 -0.656248 -4.069833 -0.799112 1.362512 1.034583 1.656775 2.702433 -0.612402 1.773542 0.060989 -0.143671 1.306935 -0.238960 -2.157152 0.556458 0.324229 1.436140 -0.295447 -2.322278
在 -1.152702 -0.307705 -0.160546 1.259629 1.440468 -1.800085 -1.990013 -1.035876 1.506342 -1.814409 0.745158 1.726672 1.771908 1.320272 2.238097 -0.053961 -1.920449 0.396024 -0.384995 -2.152303 -0.251405 0.009708 -0.218221 -1.375466 -1.352267 0.247854 -1.827961 1.842690 -0.463442 -3.003969 -0.274861 -0.512447 -2.700840 -0.482408 1.453463 -0.622129 0.145270 0.970694 1.301358 -0.631158 -0.414178 -1.587794 -0.234328 -0.372297 -0.340621 0.093827 -1.636225 -0.036456 -2.364690 -0.118814 -0.706177 2.364312 -0.594123 -1.775748 -0.648550 0.477207 -2.538302 0.415517 -2.134080 0.061681 -2.728161 1.768184 0.587874 -0.933336 -0.602107 -0.951900 -3.352364 2.486151 1.746109 0.164765 -1.087632 0.810825 -0.024561 -0.397054 0.370654 -0.635430 -1.637588 2.147046 2.537599 0.582880 0.556325 0.195037 -0.313836 3.873417 -2.668814 -0.439191 -1.811126 0.947795 -1.947005 2.986128 -0.969564 1.085607 0.618526 1.965912 1.098465 2.055085 0.826773 -1.151915 0.849650 -0.675100
是 -1.015337 -1.389694 -2.120093 1.522003 2.237328 -1.853295 -0.669857 1.431892 -2.762625 -0.273094 1.149194 0.408293 -0.949343 2.812520 3.433022 -0.600596 2.022583 1.590718 -2.067021 -0.523928 0.896334 -1.293776 2.169465 -4.525071 -0.697756 0.239305 0.469724 -1.129044 -1.774098 -1.064025 -1.586131 -0.154784 0.140357 -2.731385 -1.613223 -0.371008 0.945517 -1.077925 -0.115904 0.337191 -1.533115 0.347030 -3.382577 -1.885438 0.298982 0.810741 -0.348410 0.338577 3.024323 -0.190933 -2.825645 2.064048 -1.519976 -0.122501 -1.911299 1.005937 -1.070626 -2.117101 -1.790602 -0.796403 -0.304124 1.051214 0.469967 -1.273663 -0.484743 -0.531379 -1.944349 -2.501541 1.406201 -0.412930 -0.318334 -0.622158 2.697757 0.914082 -3.497542 -0.433620 -0.160839 2.377122 0.846351 0.933148 1.067433 1.246331 0.044590 1.314926 -0.180900 -1.918840 1.456283 0.648248 -1.390038 -1.529382 -0.734739 -0.573410 -1.840307 2.613973 1.286851 -0.391560 1.691634 0.313515 2.082963 2.113813
（ 1.308976 -0.554655 -1.676444 -1.067544 0.290086 -3.022205 -0.185791 -1.353829 1.063128 3.097395 1.941191 0.479881 -0.402713 1.496454 0.981723 -0.890990 1.087950 -0.629473 0.049862 0.573622 -1.045717 2.101172 1.138142 -1.372975 0.260239 -0.369724 -0.308636 0.073951 0.224843 0.774371 0.506351 2.066515 0.079131 -2.195886 -1.208013 -1.973217 2.131488 -2.476791 -0.219506 0.016572 -0.216905 2.283123 -0.928994 1.952872 0.828830 1.276304 -0.024202 -0.155045 0.117790 0.361787 -1.218600 -1.132888 -1.692737 0.943986 2.139339 1.604436 -0.340437 -1.971811 -0.086512 -0.907796 -2.411427 0.679311 0.654906 -1.951593 0.015175 0.114063 2.548972 0.201998 -1.142565 0.077136 2.381033 -0.896616 1.921326 -0.561825 -2.243082 0.505056 -0.840909 -3.994113 0.876458 -0.767851 0.347998 -1.384383 -1.774795 0.117824 -1.587143 -0.879065 -1.364533 2.433231 0.789759 0.793307 -0.242560 -0.079669 -1.568002 -0.600914 -3.147168 2.135709 0.938285 1.581689 0.842061 0.615579
） 2.216314 -0.651064 0.551883 -0.083005 3.004613 1.665206 -1.073456 0.640064 1.292212 0.201462 -1.015349 1.399772 0.132314 2.932922 -0.787503 -0.278414 1.341708 0.313591 -1.134546 0.246787 0.191977 0.409714 3.379883 0.629482 0.296557 -0.407726 -0.715837 1.884395 2.246612 -0.653372 -2.003824 1.828982 -0.127760 0.860348 -0.487409 -0.240217 -1.121421 -0.386022 -0.666367 1.961466 0.844505 0.113560 0.985467 -2.932896 0.808486 0.130568 0.529863 2.470973 -1.370277 1.728875 -0.409822 0.022693 -1.899458 -1.742891 -0.494790 -0.918298 -1.498734 0.472659 0.943050 1.568654 -1.782791 0.634477 0.527618 -0.720987 -0.626697 0.566663 -0.252186 1.437055 0.029762 1.433710 2.041621 -2.182843 1.260824 0.044208 -1.906235 0.300509 -2.352034 -0.169147 -0.490122 -0.657717 -0.267906 -0.287309 -0.649332 0.856514 0.326517 1.698570 -0.457787 -0.432106 -0.137207 1.318159 -0.050509 -0.043247 -0.016879 0.262468 -0.734465 0.252491 1.332921 0.729644 2.641988 0.479930
一 0.006392 -3.016102 0.145571 -2.472708 0.832998 -1.971686 -2.606453 -3.751514 4.174957 -0.357638 2.604101 0.204062 0.477819 0.358668 3.442127 -3.219574 -0.814146 0.930542 -0.435457 -4.083296 1.559795 -3.007276 0.467010 -5.834481 0.396512 1.122101 1.196824 -1.275097 0.170953 -6.630896 2.582475 -0.854029 -0.950882 -1.370735 0.788138 1.517758 -1.876590 1.800684 -1.532158 0.694198 -1.980860 -3.005836 -3.631101 -2.916575 -0.482262 0.626284 -0.144704 1.442532 4.479500 -0.866107 1.356105 1.848817 -4.670053 -4.259862 2.587560 2.893312 -0.245708 0.769749 -4.339123 1.783355 -1.462725 -2.268853 4.412787 -4.920841 2.215654 2.363939 -3.402783 -1.398798 -1.631928 -0.526120 0.870816 1.488481 0.588971 0.339020 -0.136170 -2.353880 -0.429778 -0.484289 2.395973 1.562995 2.190013 3.084064 1.321404 -0.603764 1.876341 -3.668916 -2.694506 0.944980 1.982002 4.250667 -2.815734 1.956247 -0.291739 2.173328 4.658001 -0.010517 1.932550 3.311684 0.042724 3.233299
